<?xml version="1.0"?>
<!-- DTD for the XMLBIF 0.3 format -->
<!DOCTYPE BIF [
	<!ELEMENT BIF ( NETWORK )*>
	      <!ATTLIST BIF VERSION CDATA #REQUIRED>
	<!ELEMENT NETWORK ( NAME, ( PROPERTY | VARIABLE | DEFINITION )* )>
	<!ELEMENT NAME (#PCDATA)>
	<!ELEMENT VARIABLE ( NAME, ( OUTCOME |  PROPERTY )* ) >
	      <!ATTLIST VARIABLE TYPE (nature|decision|utility) "nature">
	<!ELEMENT OUTCOME (#PCDATA)>
	<!ELEMENT DEFINITION ( FOR | GIVEN | TABLE | PROPERTY )* >
	<!ELEMENT FOR (#PCDATA)>
	<!ELEMENT GIVEN (#PCDATA)>
	<!ELEMENT TABLE (#PCDATA)>
	<!ELEMENT PROPERTY (#PCDATA)>
]>


<BIF VERSION="0.3">
<NETWORK>
<NAME>iris-weka.filters.supervised.attribute.Discretize-Rfirst-last-precision6-weka.filters.unsupervised.attribute.ReplaceMissingValues</NAME>
<VARIABLE TYPE="nature">
	<NAME>sepallength</NAME>
	<OUTCOME>&apos;(-inf-5.55]&apos;</OUTCOME>
	<OUTCOME>&apos;(5.55-6.15]&apos;</OUTCOME>
	<OUTCOME>&apos;(6.15-inf)&apos;</OUTCOME>
	<PROPERTY>position = (0,0)</PROPERTY>
</VARIABLE>
<VARIABLE TYPE="nature">
	<NAME>sepalwidth</NAME>
	<OUTCOME>&apos;(-inf-2.95]&apos;</OUTCOME>
	<OUTCOME>&apos;(2.95-3.35]&apos;</OUTCOME>
	<OUTCOME>&apos;(3.35-inf)&apos;</OUTCOME>
	<PROPERTY>position = (0,0)</PROPERTY>
</VARIABLE>
<VARIABLE TYPE="nature">
	<NAME>petallength</NAME>
	<OUTCOME>&apos;(-inf-2.45]&apos;</OUTCOME>
	<OUTCOME>&apos;(2.45-4.75]&apos;</OUTCOME>
	<OUTCOME>&apos;(4.75-inf)&apos;</OUTCOME>
	<PROPERTY>position = (0,0)</PROPERTY>
</VARIABLE>
<VARIABLE TYPE="nature">
	<NAME>petalwidth</NAME>
	<OUTCOME>&apos;(-inf-0.8]&apos;</OUTCOME>
	<OUTCOME>&apos;(0.8-1.75]&apos;</OUTCOME>
	<OUTCOME>&apos;(1.75-inf)&apos;</OUTCOME>
	<PROPERTY>position = (0,0)</PROPERTY>
</VARIABLE>
<VARIABLE TYPE="nature">
	<NAME>class</NAME>
	<OUTCOME>Iris-setosa</OUTCOME>
	<OUTCOME>Iris-versicolor</OUTCOME>
	<OUTCOME>Iris-virginica</OUTCOME>
	<PROPERTY>position = (0,0)</PROPERTY>
</VARIABLE>
<DEFINITION>
<FOR>sepallength</FOR>
	<GIVEN>class</GIVEN>
<TABLE>
0.9223300970873787 0.06796116504854369 0.009708737864077669 
0.22330097087378642 0.4563106796116505 0.32038834951456313 
0.02912621359223301 0.20388349514563106 0.7669902912621359 
</TABLE>
</DEFINITION>
<DEFINITION>
<FOR>sepalwidth</FOR>
	<GIVEN>class</GIVEN>
<TABLE>
0.04854368932038835 0.3592233009708738 0.5922330097087378 
0.6699029126213593 0.30097087378640774 0.02912621359223301 
0.4174757281553398 0.47572815533980584 0.10679611650485436 
</TABLE>
</DEFINITION>
<DEFINITION>
<FOR>petallength</FOR>
	<GIVEN>class</GIVEN>
<TABLE>
0.9805825242718447 0.009708737864077669 0.009708737864077669 
0.009708737864077669 0.8640776699029126 0.1262135922330097 
0.009708737864077669 0.02912621359223301 0.9611650485436893 
</TABLE>
</DEFINITION>
<DEFINITION>
<FOR>petalwidth</FOR>
	<GIVEN>class</GIVEN>
	<GIVEN>petallength</GIVEN>
<TABLE>
0.9805825242718447 0.009708737864077669 0.009708737864077669 
0.3333333333333333 0.3333333333333333 0.3333333333333333 
0.3333333333333333 0.3333333333333333 0.3333333333333333 
0.3333333333333333 0.3333333333333333 0.3333333333333333 
0.01098901098901099 0.978021978021978 0.01098901098901099 
0.06666666666666667 0.7333333333333333 0.2 
0.3333333333333333 0.3333333333333333 0.3333333333333333 
0.2 0.6 0.2 
0.009900990099009901 0.0891089108910891 0.900990099009901 
</TABLE>
</DEFINITION>
<DEFINITION>
<FOR>class</FOR>
<TABLE>
0.3333333333333333 0.3333333333333333 0.3333333333333333 
</TABLE>
</DEFINITION>
</NETWORK>
</BIF>
